[
  {
    "Contents": "NeuralNetwork Model",
    "Info_Name": "Doodle Classifying Model Colab",
    "Config_Info": {
      "layers": 5,
      "layer_nodes": [
        784,
        96,
        108,
        56,
        4
      ],
      "layer_names": [
        "Input_Layer",
        "Hidden1",
        "Hidden2",
        "Hidden4",
        "Output_Layer"
      ]
    },
    "MoreInfo": {
      "BestModelTillData": true,
      "Date": "19-11-2021",
      "Accuracy": 96.9975,
      "Tests": "38,799 correct and 1201 wrong out of 40,000",
      "Loss": 0.0015,
      "Second Best Loss Till now": 0.009
    },
    "labels": [
      "Cloud",
      "Clock",
      "Toothbrush",
      "Tree"
    ]
  },
  {
    "nodes": 784,
    "name": "Input_Layer",
    "type": "INPUT",
    "key": 0,
    "weights": null,
    "bias": null
  },
  {
    "nodes": 96,
    "name": "Hidden1",
    "type": null,
    "key": 1,
    "weights": {
      "rows": 96,
      "cols": 784,
      "name": "weights",
      "data": [
        [
          -0.15246638167818793,
          -0.40382743608473626,
          -0.9446875412853641,
          0.6203240728099226,
          -0.14755210123540174,
          -0.07774014002910246,
          -0.25671576142947994,
          -0.15979669825119358,
          -0.7340491234448931,
          0.3147269608544154,
          0.444200381110323,
          0.31803187606382766,
          -0.9362493206612905,
          -0.38531222752579963,
          0.9740838609932567,
          -0.6456214689927138,
          -0.8024405037985294,
          -0.1375132454210084,
          -0.6166212107040436,
          0.8075846488881975,
          -0.9542293659937462,
          0.4652579596963913,
          -0.8032490427020564,
          -0.37807216934048427,
          -0.019788206128635855,
          -0.054101164108721234,
          0.46837948836393895,
          -0.6984744663215412,
          -0.6811072748877498,
          0.919113636710194,
          0.34628580139271986,
          0.29410718673144837,
          -0.437275862155425,
          -0.16198739866665987,
          -0.1912573976453892,
          0.4912739997087945,
          0.9197861668951682,
          -0.20150656969837127,
          -0.3025124689358145,
          -0.4500997267116859,
          0.004293172963760542,
          0.024238279623691298,
          0.5957667344181092,
          1.1700403072368428,
          0.0597233954165554,
          -0.6171662463267545,
          0.6240516255444358,
          -0.9645551761743988,
          -0.937219314724477,
          0.8572530572559302,
          -0.6255948613766835,
          0.2717988468704527,
          -0.4719154826800295,
          0.39733582926218985,
          0.2020446159814251,
          0.603034810449752,
          -0.6060550184849389,
          0.036711494170657534,
          -0.1233086139831143,
          -0.7755710766439857,
          -0.09428120850955218,
          0.07528577897469954,
          0.058073648025641675,
          0.6348940810819725,
          -0.9612315045727673,
          0.33814572219668326,
          0.17992588137789103,
          -0.08998194113689677,
          0.2968930105542324,
          -1.078086812370665,
          -0.4428198790823324,
          0.3989584225992831,
          -0.85494462112966,
          -0.4190493233231358,
          0.368953174603882,
          -0.5192445425269218,
          -0.6909178435758272,
          0.12472563821677987,
          0.5969707527671614,
          1.0624943265587385,
          0.31691588348685756,
          0.5750814193516641,
          -0.8171107668629974,
          -0.5956811669257878,
          -0.947701603056448,
          0.7628550067287176,
          -0.07765015575951709,
          0.31161520410933446,
          0.30034189554067264,
          0.20482012649224413,
          0.44479873277528287,
          -0.5028399757154913,
          -0.6195426161832069,
          -0.2621477755974082,
          0.22108679693340824,
          0.46415482616760717,
          0.1994385787604238,
          -0.07263999546112129,
          1.6541442506105781,
          0.8205601218663392,
          0.5181882978200756,
          -0.44947893516719123,
          -0.6623918242919835,
          -1.1042708183995782,
          -0.5033387405856942,
          0.24320663182040275,
          -0.6405636386785061,
          -0.29637223440793625,
          -0.5450265926532404,
          0.22144474562893712,
          0.3203618768408387,
          0.8921166900156441,
          0.4174725120365568,
          0.48993766266659056,
          0.2948363254460335,
          0.8658122400406584,
          -0.2220070310793977,
          1.0792253630973168,
          0.2336267453489894,
          -0.07619301667007686,
          0.2740662077652002,
          0.23134505697087007,
          1.267733520733585,
          0.19324856641853724,
          1.0128898981281143,
          -0.6900833931965163,
          0.30143191403171765,
          -0.2110509799728048,
          -1.1337458143846453,
          -0.26095981815662467,
          -1.0048560600987126,
          0.06753537334034845,
          1.564909610999467,
          0.18956907509737153,
          0.06412611211445013,
          -0.700029131886681,
          1.0320090239557103,
          0.8327834353482185,
          -0.058451032508892414,
          0.15866658854054894,
          -0.9104818389020195,
          -0.6889894187889422,
          0.38380818179475995,
          -1.1877011592624955,
          0.5047487045733956,
          0.7514674542065971,
          0.313361892959295,
          0.2929868613327233,
          -0.06961235138708814,
          -1.061807763324285,
          -0.20786801039554595,
          -1.2181645448040912,
          1.0447734209943083,
          -0.6479249648049051,
          0.11533791001942087,
          0.8149776744912883,
          -0.13333683625187778,
          -1.1206236838007477,
          -1.3722742789505809,
          -0.5010833956882091,
          0.808912599732866,
          -1.1130285895696088,
          0.20057501577596,
          -0.779183900949278,
          -1.0134355534864452,
          -0.21493723110348412,
          0.30822069251942336,
          0.5758764951528759,
          0.4058228184526793,
          -0.047194311164379825,
          -0.43743314615624973,
          -0.0954394533514899,
          -1.0654610997046818,
          0.3964395186603235,
          0.31348754662028344,
          0.7292660543445206,
          -0.6452436477438456,
          0.03196747453732773,
          -0.43612736812242986,
          0.3247595764669433,
          -0.21894719861282508,
          0.42423279898951594,
          1.0467011103998616,
          1.4525036424386848,
          -0.23461960729916523,
          0.7247238330900895,
          -0.6998940187807126,
          0.4796750233358671,
          -0.01114699210653427,
          0.613459075562565,
          -1.1733766287312517,
          -0.011794065125951101,
          -0.24797109372282317,
          -0.18093589980997454,
          0.8339550293236708,
          -0.9960270674794809,
          -0.7848851566636288,
          -0.5687666904504329,
          -0.561290508834013,
          -0.5144631272330693,
          0.43077934888208314,
          0.23461532229829465,
          0.09118391311086822,
          -0.5351829580382337,
          0.13940297163678492,
          -0.8354857350444834,
          -0.27870510269586035,
          -1.1895948762971391,
          0.5455778590865342,
          -0.1616981957405779,
          1.000542265644566,
          -0.9646898260117943,
          0.0425259891252887,
          -0.729002722843735,
          -0.3930970868868505,
          -1.3418899549879564,
          -1.2064691868048127,
          -0.6933107048898187,
          -1.0063288327692865,
          -1.6555954845469982,
          -0.9603813435264765,
          -2.049892838146745,
          0.3599913047914345,
          0.5990479004710159,
          -0.5780306546373513,
          -0.3284014631238773,
          -0.9409996360378571,
          -1.2082720213174591,
          -0.12096305326101868,
          0.6068234981552474,
          1.6256914809839083,
          0.5853996332800058,
          -0.9289788217032481,
          -0.3049345341781298,
          0.33779905605044463,
          0.8663427809897377,
          0.6980715871201856,
          1.552197403569338,
          -0.3857989949555146,
          -0.2867404793831442,
          0.03151712796716933,
          -0.41507271031786525,
          -1.2305603014462758,
          -1.113588741236324,
          -1.6929649414508832,
          -1.3534483207042578,
          -1.1234487811227285,
          -0.25500241419024305,
          -1.8235699979710742,
          -1.4329372833511878,
          -0.3476508876433976,
          0.48220044006845786,
          0.11865122854988153,
          0.4745615620453164,
          0.2446020340031733,
          -1.137059344015465,
          -1.9596404799481646,
          -1.4435763443434162,
          0.3755530490498701,
          -0.7235014980093267,
          -0.5732468924737807,
          -0.7735342033431285,
          0.9237038994078698,
          -0.14002761614498982,
          1.3501413488314478,
          0.5507632598394507,
          -0.6811715524459624,
          -1.2890270463294748,
          -0.660908327942146,
          -0.5271270049055903,
          0.22902855631445662,
          -0.4763484637060019,
          -1.8955873525023657,
          -0.6570620131782041,
          -0.09720024605357115,
          -1.0252705104024786,
          -1.7666463949797853,
          -0.9195644770534025,
          -0.17942754766650473,
          0.6539742226894134,
          -0.8376527658165678,
          -0.8241370501402373,
          -0.08810650087620195,
          -0.9726900318620508,
          1.2649779762331967,
          1.1917534673847476,
          1.3604787016168087,
          -0.2939460914405622,
          0.32087815819120763,
          0.7071861661722254,
          2.1667436269271576,
          0.8186913789200011,
          1.228505846050194,
          -0.08871687014416672,
          0.1832760173912653,
          -1.1485117334746138,
          -0.9331146600538243,
          -0.6605825256742907,
          1.582638174203951,
          -0.8217240315282808,
          0.3005815647302905,
          -0.6378496036459821,
          -0.3990480974623322,
          0.24635668023283336,
          -0.473393182710534,
          1.2929640078938176,
          -0.2945459670025547,
          -0.3243440003890561,
          -0.4235359099734055,
          -0.45645817265185096,
          0.3353259987005212,
          -0.8622698320573685,
          0.752609565402703,
          1.5196513295460716,
          0.24082990055439726,
          -0.24258816264400668,
          -0.7855199728924301,
          0.25474755401630267,
          -0.5386112367122542,
          -1.0056465512293653,
          0.27756867110668054,
          0.3700812497068542,
          0.43134894277079977,
          0.758157202958276,
          -0.5128016425692391,
          0.5866594217956613,
          0.40357620111730064,
          1.197760475098622,
          0.7177041594917066,
          1.0246311332663847,
          -0.5687871871571143,
          -0.04384459682945663,
          -0.7711580643854533,
          0.9290882833458206,
          0.21111962328454514,
          -0.698568099819117,
          -0.46098790136741785,
          -0.31999983492592254,
          -0.6349868101204161,
          0.4827489468229957,
          2.5246923660689355,
          0.9514822052399283,
          1.1361507259941706,
          0.08441569790745368,
          -0.6745605231370584,
          0.04360801738553273,
          -0.021100927819567846,
          -0.47286107266564387,
          -0.6681192054717408,
          0.040982511244047136,
          0.24838742898136026,
          0.41609477389683225,
          -0.29481554128251686,
          1.0128801821545745,
          -0.13680769532873313,
          0.4516120482692059,
          0.09503630762646312,
          0.9331705420830854,
          0.9617718329874334,
          -0.36386582496133635,
          0.482243875179648,
          0.1073060327759365,
          0.4678102358445765,
          0.3416691119508328,
          -0.6349718842704895,
          -0.4337873914566369,
          1.5833437958796697,
          0.1478245155644422,
          1.3491637032380859,
          0.8760852496003666,
          -0.7090087214621591,
          0.9223779898982578,
          -1.2596188393835044,
          -0.17463590278856297,
          -0.8580549690766176,
          0.2172703800839324,
          0.31680457136727813,
          -0.3902995901154713,
          -0.8271488168431853,
          0.04135321170474697,
          -0.28384408087916246,
          -1.208114266326427,
          -0.3568260897144908,
          0.07259475792880099,
          0.032061636285493196,
          -0.2464261188287719,
          -0.9722196254850416,
          0.35448516873478375,
          2.5524412498473446,
          2.930772260222078,
          0.0792469096549117,
          0.24559487558079418,
          -0.39921200604921725,
          0.3302826081591961,
          4.326494741779564,
          0.7551865946985753,
          -1.1284038233452252,
          -0.43371131618756525,
          -0.6400211169549712,
          -0.6112313586638026,
          0.5010780020163565,
          -0.6863854722970629,
          0.9186472045322501,
          -0.7748430195591312,
          -0.19131687016591806,
          -0.5484942837570397,
          -1.043253051114177,
          -1.0826496933717111,
          -2.3076798728622054,
          -2.4528229564350386,
          1.2456465759182327,
          -0.7807318015372956,
          0.49312999453158285,
          0.7223669136286759,
          0.0005703144269391116,
          -0.9885207053362459,
          0.40041987258212175,
          1.679557741668278,
          0.5087297972597579,
          0.35401780907963,
          -0.8864541846121423,
          0.24092060981537872,
          2.819193167275678,
          1.6973223452137929,
          -0.3335568071161013,
          0.21646168453472395,
          -1.0285297976747336,
          1.0962176532025762,
          -0.5123795969497401,
          -0.35118853004851824,
          -2.344562826908766,
          0.44292481316204474,
          -1.3145201695876854,
          0.3778904014587552,
          1.5861850698886657,
          -0.553714813986611,
          0.7685847293593934,
          1.4186264475132506,
          0.28568598407879375,
          -0.7027693631484724,
          0.11565255348450075,
          -0.479430570790944,
          -0.2590847155489956,
          -1.0318221858967518,
          0.9962499868185866,
          1.6574599663471759,
          1.2266830601790202,
          0.8233984582104901,
          0.02967524604662808,
          0.6842586961787398,
          2.2856737764416786,
          1.0316638477904867,
          0.542609512323567,
          0.555514062215423,
          -1.131337795680167,
          -0.7875833562837369,
          0.2918316469065176,
          -0.8901342983100646,
          -2.3603382285304377,
          -0.4050139285397763,
          -1.2531214236314396,
          -1.006649524112896,
          1.0307975715646311,
          1.2096743870479838,
          0.13051241891034585,
          2.0133433336330784,
          0.7208951957232124,
          -1.764031544928145,
          -0.8708609834349231,
          -1.1192379253663507,
          1.804166056968253,
          0.8576008186419861,
          1.3020560805416481,
          0.7646894726087525,
          -0.5361554878658011,
          -0.045251631962897054,
          0.07347108913093914,
          1.3032783632343188,
          0.7407616438320036,
          1.7680772642110634,
          1.9444919765709872,
          0.2465885749596498,
          -0.2139983999222925,
          -0.7000983698657307,
          0.67698952914738,
          0.29688645535950214,
          -2.6488935691258435,
          -1.31030487914991,
          -1.9103950784007822,
          -2.212026195286175,
          -1.5480982309614189,
          0.3459903194330797,
          0.16503255823369634,
          -0.7155627403315893,
          0.23376567750163377,
          -2.145203258122321,
          -0.9743477221860071,
          0.7990291748697462,
          2.0977966255185674,
          1.026507099659935,
          -0.7076171340379264,
          0.9175761865527982,
          0.1396235455554266,
          0.5241693886318128,
          0.22698827717547831,
          0.33315878108413816,
          0.6971731410879068,
          0.43057988575767414,
          -0.2364160702095309,
          -2.006895333197065,
          -2.239743629307015,
          -1.400888158749468,
          -2.066479176856716,
          -0.1295582300580484,
          -0.005113893950677223,
          0.3886695620408984,
          0.27838296308166427,
          -0.5104932744474346,
          -1.2896912182259512,
          -0.024982922746436518,
          0.2908968545195019,
          -0.6244376288918416,
          0.4450984769148507,
          0.2947898550440778,
          1.4218802624866527,
          -0.16537578600899908,
          1.3345716476565588,
          1.646994660641989,
          0.44105802411279105,
          1.6689251508723495,
          -0.07901538303857013,
          -0.9738796379364218,
          -0.11245887375906705,
          -0.5057976219450713,
          0.046618131417756864,
          -0.783640054607675,
          -0.6022977820775113,
          -0.43923200610861,
          -1.490195379165347,
          -3.492104371061451,
          -1.6883933920620557,
          -1.2911168924816867,
          -0.8271257423301365,
          0.7099196765145784,
          0.7891084970231982,
          0.3975726582258603,
          0.7742474421708552,
          -1.0605961081958075,
          -0.16903221234908106,
          1.020144885972564,
          0.14640615207456212,
          0.7376606426142953,
          0.9852827132657505,
          0.6211574124947705,
          0.9478842907493524,
          1.1056451281846622,
          1.8085028167283412,
          0.7826312283037659,
          -0.5076512043177678,
          0.5560751938849686,
          -0.5927914868539064,
          0.5570767061694074,
          0.2580968840815928,
          -1.3759619119072806,
          -1.121926721578238,
          -0.9343023559473406,
          -0.37812019590140594,
          -1.3069549410479655,
          -2.9309764843037787,
          -0.969094905621835,
          -1.357595870628771,
          1.2521797147237002,
          1.3493761858383557,
          0.708194613718617,
          -1.4481592287378828,
          1.2830294608006643,
          0.44676706971775954,
          1.5428502338789807,
          0.7114699303144434,
          1.0791286490835368,
          1.8596660506962626,
          0.0802085601800354,
          2.265534653365563,
          0.182659751254525,
          -0.40874679312081336,
          -0.27561324892120953,
          0.4799551995992274,
          -0.5006006894381752,
          0.6466070778173045,
          0.3631074004349382,
          -0.5655386199965391,
          -0.2669652397580931,
          0.06971964073403374,
          0.09005645644284306,
          0.7435161928008657,
          1.3156738487122264,
          -1.5721904678325551,
          -2.317672795007926,
          -1.3441093122759775,
          -1.7240455459571784,
          0.014491182962949113,
          -0.3643749987194266,
          -0.4743980509514284,
          1.4013029074393328,
          1.5441263049646548,
          0.11652235866059264,
          0.4479456694741514,
          1.8786547956673203,
          0.7267605206517388,
          -0.48135828114376283,
          0.47185679733327107,
          0.9393632906434021,
          1.5573001809826266,
          0.6722109485140585,
          0.7941578159246927,
          -0.8343828742958161,
          -0.5530661100245293,
          -0.2214530848497324,
          -0.5615933227435919,
          -0.681226024802691,
          0.22944063366521067,
          -0.8272283018041587,
          0.2254120121975179,
          1.0811268644092218,
          -0.6254003960696188,
          -1.3863240408544952,
          -2.6978448070216845,
          -1.9572254367455293,
          -0.5708448053308673,
          -0.9956954562263141,
          0.7127308905413057,
          0.6590449813948648,
          0.18950822403624487,
          1.2442285119764567,
          1.4990998714570345,
          1.7864818083170255,
          0.7542152145944121,
          0.5338620376145072,
          1.0626942711573188,
          -0.09290408658699922,
          -0.40769802875405264,
          0.546084753696738,
          -0.37035130773555214,
          0.9236750460223384,
          0.5563914146047346,
          -0.13054625940025708,
          0.7000653047643827,
          -0.6390675028363717,
          -0.40107948889806233,
          0.557213242031361,
          -0.1399523838120239,
          -0.6944267932857343,
          0.4838481147508976,
          -0.9171703627969742,
          -1.5644941577262443,
          -1.9738774973885107,
          -1.8443273627401089,
          -2.1156970842811376,
          0.09817848408824942,
          0.5418551332587047,
          1.8188087810264277,
          0.8503352213309503,
          1.721890283948314,
          1.6030305958213937,
          -0.2447105342285135,
          0.3343229675081465,
          0.028694487008064477,
          0.5352872245672287,
          0.6155594147240636,
          0.7423963953532721,
          -0.6623983460975131,
          -0.15630981147239953,
          -0.7194513472535886,
          -0.7756477890856878,
          1.1780906063097256,
          -1.0666568831343912,
          0.22680196032632977,
          1.0421826693571796,
          0.06190221120902139,
          -0.3277051337047333,
          0.10353820808773626,
          -0.3643365096939377,
          0.04926465193088999,
          0.462648822787927,
          -0.8503032043609186,
          -2.0005088527072195,
          0.2671122657943235,
          0.28035931257950847,
          2.3329310907956176,
          1.1822536014710896,
          -0.18237292386136825,
          1.4017766833051692,
          -0.7650411423237358,
          0.41747427251371627,
          1.4770916352887282,
          0.7051676697918048,
          -0.27924618854501226,
          1.2643947550298578,
          1.0392104410044838,
          0.2740049074669719,
          -0.10395863991252985,
          -0.1822345202080179,
          0.3481183066983059,
          -1.0205684510041402,
          -0.04970994680554035,
          -0.6719996711255627,
          -0.4298265812145345,
          -0.5799354251920672,
          -1.7010062230323313,
          -1.6954632044207718,
          -1.2401621274559556,
          0.2028644302993954,
          -0.7267810840482102,
          -0.25516405853921753,
          0.8095679564571284,
          2.0728450241239025,
          1.7681910607267657,
          0.04100924387462436,
          0.4686137354163416,
          0.6131034081358349,
          0.24011582307504079,
          -0.6619392229183472,
          -0.008131827510319756,
          -0.5427105206690482,
          0.8621205042534461,
          0.8640031721620309,
          -0.05596675320776264,
          0.0976761763823959,
          0.5573140192885191,
          0.8053309321904377,
          0.485168182329145,
          0.7821824617182596,
          -0.4279226907410729,
          0.7677923581388844,
          -0.6709856692571097,
          0.6912585503550048,
          0.5809774159729265,
          -0.7094705934268876,
          -1.2137342117546748,
          -0.23538411462872416,
          0.47617006190425404,
          1.0778486503763867,
          1.8937190336402,
          1.685951014695752,
          0.6801844190341216,
          0.9796067945644038,
          -0.9508622231885966,
          0.595070011860001,
          0.14112762816821653,
          -0.07482746310869354,
          0.8117884726250097,
          0.8592911403944197,
          0.5689193430919453,
          -0.4376785998504801,
          0.15387234842619021,
          -0.7419634164354123,
          0.07089926112049239,
          -0.8330414050182628,
          0.6579688316622774,
          0.2764915432710129,
          0.5425386839976087,
          0.8077641542617611,
          -0.8838383340720684,
          0.20826650266051483,
          -0.9448511511916573,
          -0.33619974853069956,
          0.3607853963022849,
          -0.14797380705112073,
          -0.44897250176299797,
          -0.7495801454641182,
          -0.8189551528708463,
          0.0862898259394802,
          -0.32264739038655077,
          0.9392563605180932,
          0.8868787910654616,
          0.007421141065626191,
          -0.6300430237735062,
          -0.9789722760868256,
          -0.25218465898239195,
          0.6726607463713745,
          0.9443761339128807,
          0.2774216284713269,
          0.16599491208989137,
          -0.6677265755324353
        ],
        [
          -0.5201455872525411,
          -0.8090980193768513,
          0.11722229661330874,
          0.5437122920795869,
          0.4531922232356158,
          -0.14793356916981493,
          0.8967293274845125,
          0.6561375930744926,
          0.06805779148606539,
          -0.08299984322716303,
          0.6937052916192203,
          0.861700048131272,
          -0.07965629091472493,
          0.11685989968995947,
          0.37069867323080774,
          0.07012168053253176,
          -0.1303582650549706,
          -0.541194653877981,
          -0.3263814331543806,
          0.6059494566997765,
          0.5047888959059379,
          0.5836953630844135,
          -0.3730665779572251,
          -0.49604452175076097,
          -0.5479583451194043,
          -0.5605356121412755,
          -0.7735563830341179,
          -0.3362905397878788,
          -0.28697588925489415,
          -0.49015611008597065,
          -0.7429904193576524,
          -0.6653969951141631,
          0.3370380894867801,
          0.8984752342709069,
          -0.6598574633732678,
          0.6091186480525199,
          0.17911667778637994,
          0.646030185026725,
          0.3276018189440783,
          -0.6615583502117504,
          -0.8810445604792884,
          0.7884945833186761,
          -0.8591787587619305,
          0.18391200283580908,
          -0.47148546881434905,
          1.1034123984716515,
          1.0603274135480205,
          0.5522673564058619,
          -0.3182227040206746,
          0.09214603767758815,
          0.20462349484009756,
          -0.15224682239080153,
          0.9444215771519554,
          -0.14865420029209847,
          0.7314717373561461,
          -0.7892763677553196,
          -0.6362602746426747,
          0.9038036513438792,
          0.4081171399446973,
          -0.6174602127521922,
          0.7756322439702747,
          0.35935726311722826,
          0.1648046440949257,
          1.0787763465198001,
          0.8402194745972934,
          0.7663202837144546,
          1.7299708732202272,
          0.0732109725759373,
          -0.045526370166509886,
          -0.26866719863809785,
          0.6980665602020176,
          1.6095646164721549,
          1.9779375297999993,
          0.6214097403540494,
          -0.04306516364634424,
          0.22057974851634007,
          0.01700641108809507,
          -0.7189368480485232,
          0.180543114368086,
          0.862406361821145,
          0.7983366672901524,
          0.8353113667363169,
          -0.7229188418594388,
          -0.7212206387912867,
          -0.4050882883671201,
          0.19434463664366353,
          -0.5083245006009514,
          -0.5322636980051745,
          0.07916378318376906,
          -0.7311263533177671,
          1.0101195240891285,
          0.814559480364397,
          0.9333123246029394,
          0.8254160821215668,
          1.1183840064201025,
          -0.13748722873709365,
          0.10500679614830952,
          0.4118831217779745,
          0.6596361088905836,
          1.2220498896728718,
          -0.059207594768576045,
          1.460084232340407,
          0.6348331509618179,
          1.1177948240340903,
          0.8298722659518882,
          0.8877290462897118,
          -0.828321707900794,
          -0.6690155688834578,
          0.6437567231466599,
          0.8833269815330048,
          0.18703638084388963,
          -0.38481336604060123,
          0.4985963834865046,
          -0.36983976312439976,
          1.0000018709013434,
          -0.35155361083028563,
          -0.18443311342368937,
          -0.5182163821616673,
          0.8107654595729122,
          1.1011334148427034,
          -0.15898878952728734,
          -0.10990079687741136,
          -1.4054727595951602,
          -0.5296033454265552,
          0.6384780452171088,
          0.4376652665104472,
          -0.8752185185553132,
          -1.543029755901341,
          1.1713341572610512,
          2.0218988423208075,
          0.7989046987730767,
          0.3989388984538441,
          1.280323415836221,
          -0.3674557070729019,
          0.7170360271705327,
          0.18093966342367207,
          0.2535661745940782,
          -0.9340374431812992,
          0.911708154301274,
          -0.2764023773532258,
          -0.3411319281485228,
          0.6552356486000157,
          0.6466037758995986,
          -0.20341586065305273,
          0.6258322389987986,
          1.5543524293615143,
          0.8013843735143774,
          2.281109716177381,
          0.9504716328041733,
          -0.7304023367373259,
          1.1145696676877714,
          2.1015626497377164,
          1.6457067275955706,
          1.1272658822593868,
          -0.7270630847470726,
          0.37853552417912933,
          0.9233656307514456,
          -0.24853583045690034,
          -1.0527616298668245,
          0.5138945599251448,
          1.1408015847423036,
          0.26770116376302683,
          0.10980045595573859,
          0.1519534698284858,
          0.1215882836409612,
          -0.06932723346895785,
          -1.0774621385662917,
          -0.08811077665439937,
          0.012531680354832764,
          0.20974799783611078,
          0.27225515476254636,
          0.470337233311118,
          1.7875016371828087,
          1.2143441723257418,
          1.922170709256905,
          1.3121939569270977,
          1.4721124369371952,
          1.2348271037058964,
          1.7445957730165915,
          1.4935252067220766,
          1.8696213987023809,
          1.0512809206679856,
          -0.45236784472921115,
          -0.8520948782454717,
          -0.05969687860871224,
          -0.9525083205218554,
          0.5287712733110035,
          0.6139501544261026,
          0.7936946421826445,
          0.3503038767543029,
          1.7735953152078525,
          0.8372801638083409,
          1.529549298819769,
          0.21332206057806108,
          -0.6410926398831114,
          -0.19601639606260468,
          0.4735050712893645,
          -0.27318486273576076,
          -0.248552720325931,
          0.8777077224507175,
          -0.0243199832490929,
          -0.1287718198775349,
          1.559828758883907,
          1.9136929770680446,
          0.24937844841614304,
          0.685256221875372,
          0.8815339009479725,
          0.8749540396680268,
          -0.3061056606737626,
          0.6430854372323999,
          -0.7008877392691573,
          -0.8499659753639236,
          0.6786600032899008,
          0.008260339952936983,
          0.2900705278646831,
          1.1499497238575958,
          1.2091079789222272,
          0.5827529699610727,
          0.31985053013934217,
          1.3927945033122304,
          -0.6670985157558588,
          -1.1776332085313295,
          -0.5320445931321991,
          0.34419099766447614,
          -0.9458408498919328,
          -0.677646896765979,
          -0.2543489762566279,
          1.4552163735284434,
          -0.16077814492981093,
          -1.368273971467942,
          -1.038330694339031,
          1.0721621102659915,
          1.2914960507280615,
          -0.10480794199702252,
          -0.8848227787855909,
          -0.08705148313387828,
          -0.026456359498025536,
          1.00729298066375,
          -0.7740741658510413,
          -0.5737756357149831,
          -0.2668843567545776,
          0.6692399457982294,
          1.306256809285878,
          1.5400435525467142,
          1.7111204965677291,
          2.1023349093208923,
          1.2155209010745835,
          0.04559717498322631,
          -0.9606897072950459,
          -0.821892555094109,
          -0.38679026264881344,
          -0.43104195710154025,
          -0.31164991639601647,
          -1.0202092039619077,
          0.07956611427261776,
          -0.39736183018361876,
          -1.1228313837533364,
          -0.8770958553457016,
          -0.8004537193074273,
          -1.377130979648424,
          -1.4099631632753773,
          0.40983892115949005,
          0.24029922757752487,
          0.49609846339337615,
          0.6175520069692115,
          0.5191770913992969,
          1.3176880740356367,
          0.36879900790412606,
          -0.9318076545139422,
          -0.4024518956871577,
          1.0785857478195695,
          1.159230691839909,
          -0.28365003194350064,
          1.2591679768563975,
          1.6358883680967764,
          1.3661849494558667,
          0.3192120727311672,
          0.401641297697651,
          0.6890123298200295,
          -0.7818333735217247,
          -0.40075421113676746,
          -0.6740114011299306,
          -0.09981640112168931,
          -0.05274856172603903,
          -0.5233471606960393,
          -0.771907165252365,
          -0.797954633439387,
          -0.45769218469581213,
          0.1634131671077291,
          -0.8121975435665082,
          -0.35325048738178366,
          -0.46226377772613986,
          -1.054504515047063,
          -1.986621556891134,
          0.48328529003751836,
          -0.32877474756577035,
          -1.065078587748939,
          -0.14509030493705632,
          -0.9934342314747979,
          -0.2653754686518268,
          -0.655424576971219,
          -0.948421970038668,
          0.49555826662526553,
          1.8143161260069796,
          1.7980078002068203,
          1.4956905842155512,
          0.9438663593698635,
          0.43807287666850336,
          0.8842363180405886,
          0.5179251247347101,
          -0.4376600542929752,
          0.4886009587778241,
          0.11391347510132938,
          -0.7130410702348783,
          0.932693501619617,
          -0.8607684331118985,
          0.9182353142235936,
          0.12463665724758831,
          -0.3875414286768951,
          0.705965594916951,
          0.46842960925615873,
          -0.28481746607229724,
          0.37365706676192695,
          0.7094569388333488,
          -0.2961807293642893,
          -0.6789479996475984,
          -0.7018518551742748,
          -1.7410789700695204,
          0.30448368967747,
          0.2087853257837236,
          0.7919736414258236,
          1.4300831982503177,
          -1.0606815749233276,
          -1.1434876425471274,
          0.7291428699069867,
          0.1404529477796943,
          -0.6912738756838419,
          0.2044669509967092,
          -0.49623002427607327,
          -0.9824031088865809,
          -0.02156463394692067,
          -0.8091329587588287,
          -0.5688588421725032,
          -0.6671472893403175,
          -0.7862906696908246,
          -1.0214577823678506,
          -1.3680489868895471,
          -1.3389498854138893,
          -1.1157813909807774,
          0.17385850217577267,
          -1.011304590224391,
          -0.13147743012623767,
          -1.3280799082044334,
          -0.8056050790395998,
          -1.1934184826052137,
          0.24443790802040086,
          -0.4110285356403827,
          -1.0605826564324172,
          -1.558354825287223,
          -0.9489502614240488,
          -1.3647646059177314,
          0.14135097371989147,
          0.9371940040480943,
          -0.553123454775792,
          0.5845053110213523,
          -1.0684503238408536,
          -1.1854408788731703,
          0.8580566664822793,
          0.1002892111703101,
          -0.7223927555873466,
          -1.4826801371269134,
          -0.7520358733215722,
          -1.9904826471689476,
          -0.9177785448372363,
          -0.40684351465173285,
          -0.922303238479069,
          -0.9204094234399621,
          0.6380760930162118,
          -1.7472258002757233,
          -0.6255404638453185,
          -0.9091205222705545,
          -0.5718681220199264,
          -0.30793183021267173,
          -1.1385924196547275,
          0.43593925847301995,
          0.4785039593168657,
          0.4759653933218314,
          -0.6781192803789851,
          -0.8556169647050377,
          0.42522021065465776,
          1.0915100415593173,
          -0.5407207774517548,
          0.20179664993423763,
          -0.0985221519173772,
          -0.1417106982647236,
          0.23021738268786984,
          1.220311253997546,
          0.2403369760585725,
          0.3505753184058515,
          1.1448421370373314,
          0.39483238408192955,
          0.8711812655335205,
          -0.5205803863872637,
          2.09486132959633,
          1.7144885340670017,
          1.2459132914948088,
          0.039330417360925886,
          0.7928213612968982,
          1.557624573982057,
          0.5993403153493904,
          -0.15267253073978054,
          0.2676646425619168,
          0.30898651614164985,
          -0.15457650956549546,
          1.259672268578236,
          0.16372029047676082,
          -1.1873870470799484,
          0.6893169412475063,
          0.04439026663295792,
          -0.3223470908238455,
          -0.6503359526355972,
          0.45456429041313673,
          -0.8048031526637919,
          -2.8753519897198814,
          -0.509033836299364,
          -0.7411826376142255,
          -0.1534470171339849,
          0.014096794126015779,
          -0.6136288281365917,
          0.7229549336515922,
          -0.5418023760369681,
          0.7805046501511536,
          2.565533833757747,
          1.471506495794741,
          0.10242665353374493,
          0.7418048620086801,
          0.5766952004312507,
          0.7858038356125625,
          -0.4767284036111886,
          -0.601825176681805,
          1.6497064617538646,
          2.136033543237498,
          2.005124939456,
          -0.05179386130696658,
          -0.16594001310015866,
          1.7048188075131347,
          0.7149687328406562,
          0.6279145299169873,
          0.12514742546245805,
          -0.07225780963632848,
          -1.947046600026255,
          0.11189990259149189,
          0.27034109455915434,
          0.1538561628255393,
          -0.5231154683046126,
          0.2135677080985301,
          0.1323177962328368,
          0.2340595559809876,
          0.6331144695403412,
          0.07620477410101423,
          0.2656631050484013,
          0.7258759929581851,
          1.3688500295344623,
          0.3007930861673376,
          -0.31752498406540913,
          0.6413684364821158,
          -0.2882267565038847,
          -0.16869806548871233,
          0.900058381647156,
          0.9451977695443979,
          1.0897492244415188,
          0.6345277725891633,
          1.0339471800306497,
          1.873621243830437,
          1.4985638184257435,
          0.8277418175024085,
          -0.7603409205937233,
          0.831269829165401,
          -0.8121817112583777,
          -1.359958137632845,
          -0.40600517773843536,
          0.5039582723883271,
          0.6334501783633907,
          1.175306972453449,
          -0.026332580786286256,
          -0.19558696205256376,
          0.5772885275376438,
          1.2381694970930104,
          -0.05976046722741796,
          -1.1772530583957965,
          0.33597921823800714,
          0.03910318969837156,
          -1.381141965858379,
          0.9722256381428523,
          -0.38729152210483436,
          -1.1250735361017352,
          -0.9533192667327272,
          -0.6491393083310448,
          0.2773789788889752,
          0.027767826360380454,
          1.2680523431893993,
          0.8370939859065254,
          -0.4355511169392688,
          -0.45765014911220936,
          -0.43322673429988545,
          -0.6362332303220236,
          -0.13990803836273683,
          -0.6580479410868986,
          -0.9899575858800511,
          0.2829793224179512,
          -0.5859948918974104,
          0.7814341933574845,
          -0.37606842909289123,
          -0.450522546001515,
          0.06756904188700691,
          -0.8363641399289178,
          -0.4070427083062736,
          0.5733881185489044,
          -0.7538426416159553,
          -0.2882746430595266,
          -0.842346505662561,
          -0.4915233720055497,
          -1.3499817605782258,
          0.7961359633466109,
          0.07590144562424102,
          0.6230630468939184,
          1.0991176287232334,
          0.31956301693622724,
          -1.3260651816790237,
          -1.154175200963745,
          0.5046948301073347,
          -0.7656569172123875,
          0.34788607162668184,
          0.5631776515171042,
          0.4465461283209126,
          -0.4076808275346388,
          0.4674129199835345,
          -0.7645050054015147,
          0.19795779438484137,
          0.3195543613228275,
          -1.4482694956719775,
          -0.9746978138879406,
          -0.4219362340259173,
          -1.3056887045276213,
          -0.39255678637161323,
          0.8858962830194256,
          -0.6394931992955438,
          -0.8078635521811206,
          -0.639433580473301,
          1.4362031300948301,
          -0.14618573762646,
          -0.006174399177019312,
          -0.6518047536990602,
          0.6904585907034674,
          0.8308139236961648,
          -0.09870703419134311,
          -1.8527813626727974,
          -2.2813586494148694,
          -1.2236014570199683,
          0.12260077468935537,
          0.7310704184294632,
          0.9136085865049682,
          -0.10970321730815961,
          -0.5661545307413287,
          -0.4392165648339639,
          -0.13492026428086767,
          -0.6678542246710607,
          -0.3088797076348671,
          -1.2621511407220702,
          -0.8784227787087322,
          -0.11633395931863881,
          -1.3286153907893403,
          -0.5531942853864639,
          0.5581673169978211,
          -1.3790888547753417,
          0.19655544026545296,
          0.03501019873518937,
          1.2680223290330868,
          -1.1034075513485986,
          -1.3605967297226162,
          -1.0643211375585875,
          -1.0195305863978679,
          -0.22711847305879784,
          0.9644711920768764,
          0.8224202452080416,
          -1.5417633619976563,
          0.21469092003944093,
          -0.7268705000715283,
          0.3892321811558348,
          0.6668151239455148,
          -0.1266704753831433,
          0.05619789520470405,
          0.05168400898441145,
          0.0037647413698135733,
          -0.577408817759791,
          -0.7276605675595221,
          0.0916900640567436,
          0.4870075987968478,
          1.0780749228581243,
          -0.3693177216078391,
          -1.6192353320631945,
          -1.0657756083225598,
          -0.3549639458791875,
          1.1261885292587475,
          0.6709943498490946,
          0.6415283734938307,
          1.1765153911295099,
          0.4195067290483608,
          0.08987834592924453,
          -0.3933184706364805,
          0.42749099541635766,
          -0.48532137577332457,
          -1.1285139235855328,
          -0.4117371712019844,
          0.5742706585407517,
          -0.714759305391842,
          0.983131282696492,
          -0.03242309955579886,
          0.8599358656101284,
          0.28834562207261205,
          -0.4233161608973064,
          0.3503775195497391,
          -0.7275317321875311,
          -1.4115641569909356,
          0.009061456863979979,
          0.9109008759706514,
          0.6426227546222351,
          0.049434518012839955,
          -1.6506595964564776,
          -0.7195113449272361,
          0.6118693494862459,
          0.2174061390709296,
          1.0116838329912121,
          0.7716135314348932,
          -0.9596358123661335,
          -0.37305502184525957,
          -0.21028692913247948,
          0.560560129643441,
          0.9156684266687894,
          -0.5902980029227588,
          -1.0628677918911662,
          0.10706272357231005,
          0.9447679657463065,
          -0.8158653266750349,
          -0.4829867798966312,
          0.433209780341758,
          -0.2558178362073673,
          -0.08449418059805854,
          1.5280981280821206,
          0.17035531633242398,
          0.031137443783266133,
          -0.39901500682595586,
          1.6577963678378458,
          0.3486249740548913,
          1.079180831632996,
          -0.590454213424136,
          -0.23398996178084888,
          -1.0128173855904636,
          -0.4922509034670197,
          0.46377962039887916,
          -0.16254303306206944,
          0.18650838064665018,
          0.7706437196498761,
          -0.41483833937615167,
          0.5291107780889824,
          0.15263947664617844,
          0.28152038024003306,
          -1.2462722167431326,
          -0.44499103819466734,
          0.021320981714289942,
          -0.45305185617329075,
          -0.2847911725688259,
          0.6293480609675017,
          0.415019161731662,
          -0.44019848035131276,
          0.8774822377558834,
          0.6890971010464878,
          -0.23679941796944023,
          -0.19590349468522644,
          -0.8197986164613029,
          0.5015398895072026,
          -0.13233417771680242,
          -0.5135018605260822,
          -0.10735141039089335,
          0.47764244269216033,
          -0.08328488693374524,
          0.3615350730042369,
          -0.4770707147207584,
          -1.0528649452419585,
          -0.2589561962861084,
          -0.9451829541089911,
          0.361788804025098,
          0.42265860628251123,
          -0.5052753394297724,
          -0.4279620075955587,
          -0.17594695394230747,
          0.828022121188741,
          -0.4707444583987633,
          0.6950942534706951,
          0.4588448676677259,
          -0.4978454412981488,
          -0.8395786845180188,
          0.6610164362028155,
          0.773250565902897,
          0.2122087192747164,
          0.5982720961335775,
          -0.29433545874128975,
          -0.6911028667869299,
          1.1373685564499136,
          0.7515407597682693,
          1.0134900273544512,
          -1.0722962907329114,
          0.9556669284590228,
          0.2104525639629461,
          0.7016376702859837,
          0.917722256514349,
          0.652934693169327,
          -0.04320249274581631,
          -0.5043645977768036,
          -0.8719969714437109,
          -0.7329460052864849,
          -0.17722810768624744,
          0.09827313415900447,
          -0.1412393353566212,
          1.1575458049917307,
          0.9686270237246491,
          0.9507024960828995,
          -0.33979926249221437,
          -0.6895810464181278,
          -0.5822737220470356,
          0.8186229223343678,
          -0.6772250109565655,
          -0.6191194698595727,
          0.7696235975143519,
          0.1711503432347751,
          0.9589723708637501,
          -0.6730472766353897,
          -0.6377727062090462,
          0.9021302691846675,
          0.28941533137730485,
          0.7460349819513482,
          0.7544856803339427,
          0.29079157335650213,
          -0.5768389615590143,
          1.048464305551057,
          -0.17059639592072498,
          0.862931787441137,
          -0.6435806520435101,
          -0.46896509783666024,
          -0.21257880717850106,
          -0.41850270161686975,
          -0.32008462119128334,
          -0.20459867181831956,
          -0.7615797559752927,
          -0.27536421394950295,
          -0.2338263193658794,
          -0.49232740322803137,
          0.41508548310206517,
          0.0380996571299872,
          0.8486106930012345,
          0.043407473081436,
          -0.4381645001996084,
          0.16970938630645316,
          -0.4542216283025242,
          0.011959868925775385,
          0.6003441289166609,
          -0.8170486474771403,
          0.38967633818917635,
          -0.2830066230246395,
          0.32413714996990617,
          0.39495145407327414,
          -0.18478810510566523,
          0.47834649626874115,
          0.4799851361953904,
          0.7152802481650744,
          0.6218903318083819,
          -0.5244644789750159,
          0.10114171604230959,
          0.1031207752927068,
          -0.5419290201832625,
          0.4964415073286965,
          -0.6372099083020604,
          0.3996603416735087,
          -0.615347280751577
        ],
        [
          0.9881411914076541,
          -0.6007484855522209,
          -0.07583408540131376,
          0.06338116769207369,
          -0.5805998919906439,
          -0.3829503048570826,
          -0.12180180689832132,
          0.8753795172940002,
          0.7919362091415294,
          -0.002594544605337923,
          -0.18120023946647734,
          -0.7918638954129675,
          -0.4156333054633139,
          0.38639580494781134,
          0.5180254032745117,
          -0.2683784170873842,
          -0.3311726069654646,
          -0.7398852417531938,
          0.9953253646455904,
          0.2821445442114512,
          0.2600108594522623,
          0.2520716036455115,
          -0.4787502836612545,
          -0.06308067397036088,
          0.8715928291197941,
          0.1410582938511129,
          -0.6790985561646068,
          0.352875410346408,
          -0.0558136438683694,
          0.7557772141304014,
          0.5225652527934351,
          -0.35682531023508235,
          0.7356074251576301,
          0.09755767534827012,
          0.7168691772468917,
          0.8059545566533746,
          -0.13926421077369672,
          0.9326107348131082,
          -0.31384436608484073,
          -0.8544718021532132,
          -0.5126397640494377,
          -1.1470027230429172,
          0.40626704748890685,
          -0.3085699364274221,
          -1.01233447096922,
          0.625708332966023,
          -0.7201937802719662,
          -0.6300560994722515,
          -0.6457007660680051,
          0.3108141773612961,
          0.8019215192151055,
          0.22559490865208667,
          0.17820533617383966,
          -0.751672696740846,
          0.22291390218773474,
          -0.69387567871388,
          -0.35672627620644093,
          -0.46567380768962846,
          0.7766277920958704,
          -0.6251615558784529,
          0.330399947482212,
          -0.9363369151261212,
          -1.1226423397084175,
          -0.236821017370858,
          -0.07078210808398921,
          0.30115298926122425,
          -0.25347798767771657,
          0.6023529050025338,
          0.8509901813892307,
          0.753416713392363,
          0.7412986325185322,
          0.13136426485321995,
          0.7166591313186979,
          0.11038123720143359,
          0.28406045717817,
          0.0705019603096847,
          -0.5537666078449305,
          -1.7027608234964158,
          -1.1877448318381179,
          -1.0307692827233008,
          0.5260076162458983,
          0.6111254999785423,
          0.6801842407472386,
          0.42439503585966265,
          -0.36871898686110316,
          -0.4519506816324169,
          0.33396516902287365,
          -0.41968496287093254,
          -0.49306053047140685,
          0.5568976052172709,
          -0.6812102650196311,
          -0.868252154519476,
          -1.9974225975816515,
          -0.08837269296633275,
          -0.7397525778238871,
          0.40640032773799034,
          0.03778759261934186,
          1.9339814352159572,
          1.4039759801700529,
          0.11258308447930561,
          1.6765877454563447,
          0.2103930916953329,
          -1.2576619504537658,
          -0.546334314401068,
          0.5812618437087511,
          -0.18085028006493337,
          0.6311811332251351,
          -0.6031170430360447,
          -0.0767209556171692,
          -0.29683856763871835,
          0.05708807880933335,
          0.39329689287299985,
          0.5266099441416674,
          -0.6975697629812223,
          -0.11620756387673291,
          0.4797448800053453,
          0.286361991398664,
          0.14174541600362014,
          -0.07040158190521245,
          -1.326679010849247,
          -0.6255843717729529,
          0.9730563750478614,
          -0.7331836836304597,
          1.0442001302733859,
          -0.3291832347580587,
          0.8736110540233939,
          -0.8485788678243962,
          0.3215433990814998,
          1.1537329258053626,
          1.453931046304572,
          -0.3195507351015952,
          -1.5682118748500316,
          0.06678114914286615,
          -0.34256012577473033,
          0.7677822210969047,
          -0.17387142132123437,
          1.0986824913015352,
          -0.653168643743271,
          -0.9750743463713949,
          0.8129798232070591,
          -0.7862934365696379,
          -1.017636973776714,
          0.017057812613556156,
          1.018418304175208,
          0.7667500127352004,
          0.643326917549983,
          -0.43907421565765836,
          -0.1964875874980487,
          -1.2704172576047674,
          0.7470518310161731,
          -0.497611207603555,
          0.5437863495649893,
          0.42652394831747115,
          0.6504937836672918,
          -0.7302853764718092,
          -0.4769035728572795,
          -0.8480098175600661,
          -0.3899391822471252,
          -0.5793950780721209,
          0.0241747075682515,
          -1.1031709012774187,
          -0.6584839432952307,
          -0.1525613834394509,
          0.30280479770061897,
          0.3627504480739422,
          -0.2143855263193767,
          -0.5678673681142846,
          -0.5155350459988408,
          0.17544904654613092,
          0.5444699796287714,
          -0.4271393126765179,
          -0.8061000857412047,
          0.05313832537880052,
          0.22026982043283874,
          0.18962957120607282,
          -0.6250636996438422,
          -0.738442377608931,
          -0.11652900690237727,
          0.4145999253845612,
          0.15323579162906417,
          -0.1462142556455533,
          -0.20044399524462753,
          0.3310971174021316,
          -0.26072595806368254,
          -0.5188435421320758,
          -0.630012001668123,
          0.22347231037968396,
          0.03826982028958677,
          -0.30329284052566013,
          -0.5884787992049533,
          0.38509643068267263,
          -0.2635729969208273,
          -0.6683279079577493,
          -0.7079325764207611,
          -0.9520635362853374,
          0.03374913768935173,
          0.8973549748684675,
          0.5385736680969048,
          -0.14163765440592838,
          -0.5228884471762689,
          -1.4013090058770776,
          -1.067442588955908,
          -0.16771537361503913,
          -0.28137706902238013,
          0.44842233908689466,
          -0.004362177951699408,
          -0.19495449947632357,
          0.11607270499695421,
          -0.26985369290874417,
          -0.9209804388700514,
          1.0655769192550137,
          -0.0009847536691650345,
          0.2832047503643903,
          1.1968275566753526,
          1.5365109831256332,
          0.5378808263928126,
          1.7794285675011163,
          1.1382851956046218,
          -0.5344951539350191,
          0.06907273202557161,
          1.37615861124302,
          1.0885468483755467,
          -0.6379979755899271,
          -0.883266157715275,
          -0.6092149850122424,
          0.21244076616612667,
          0.6111669579074721,
          0.16616080198911995,
          -1.6613641543527882,
          -0.6499767776302173,
          -0.0052534760546995955,
          -0.1819881115341277,
          1.023440959855117,
          0.30132092957051887,
          -0.12741017498132443,
          -0.2681701063945266,
          0.6496793951434604,
          0.19372857263388593,
          0.08807751016431196,
          -0.021424102037927235,
          0.8475416567180725,
          -0.4568268594845694,
          0.8111026972383639,
          -0.34395893913641984,
          0.7284472456370822,
          0.19346936674843881,
          0.6685320732920771,
          0.1408522462645666,
          -0.3195425016444778,
          0.5459572539129683,
          0.4544661413046177,
          -0.17617010493252394,
          0.8367869239856431,
          -0.42485936089901094,
          -0.27883884261274267,
          0.0004894198338122176,
          -1.5028430068343048,
          0.7033707319968657,
          0.386840517978349,
          0.7375112287919194,
          -0.0032894820050405355,
          0.3074663795866414,
          0.9930522334311362,
          -0.012399115238758366,
          0.4112060051847627,
          -0.3360617180483164,
          0.546733936818263,
          0.8326129899362414,
          -0.4675327753180597,
          0.2551077266499385,
          0.7176510817716811,
          1.337102345560859,
          0.898025223474584,
          0.10482164899307572,
          -0.19517518664289382,
          1.111729954711019,
          -0.509244069205204,
          -0.6870400258430247,
          -1.0167563859441366,
          0.7773667495383687,
          -0.5150067815720623,
          0.5464109185624212,
          -0.10375043772563566,
          -0.19762702711624977,
          -0.147348694216572,
          -0.8193758703511157,
          0.2630532122863597,
          -0.07259078496973743,
          -0.4379909953831941,
          -0.2363460087768349,
          -0.5434710792306934,
          1.5661847295241162,
          0.6299092017867997,
          -0.07344661493649651,
          0.08139974929549118,
          0.3357517208529392,
          0.07981550498160535,
          -1.4883998025165197,
          -0.6615216166364113,
          -0.44895165394035275,
          -0.7399461220497705,
          -0.3562114766671322,
          -0.5262697852973449,
          -0.19907855104918706,
          0.1921838925455196,
          -0.21717050999326756,
          -0.4540479360983346,
          -0.24147882151994815,
          -0.10826867172118071,
          -0.3761398469514795,
          0.2679818274403864,
          1.139405657162541,
          -0.9019071935762014,
          -1.9840149914835765,
          0.49804210812071836,
          0.03818266253341484,
          -0.23743743491362723,
          0.5392565144890376,
          -0.3714693576606758,
          0.8856657904520306,
          -1.4156261484952277,
          -1.486966808517846,
          0.15578927739546022,
          0.19323054385684624,
          0.805959852729594,
          -1.3120330534721147,
          0.35906913168994264,
          -1.2583556894943557,
          -0.2869085042625774,
          -0.7210550093506942,
          0.7224052250742449,
          -0.08740710267245526,
          1.379933696846754,
          -0.08856590029912983,
          -0.30620145307794233,
          0.3296567981689835,
          0.045970469914016654,
          -0.478301606462389,
          1.3340351007938658,
          1.9741243391418952,
          -0.40482609453598783,
          -0.7446786555739393,
          0.7492165194361133,
          -0.9112358065407913,
          -0.8111854233861509,
          -0.748986153142064,
          0.5795402233905914,
          1.6362992252431388,
          -0.4571081309142491,
          -1.0929685967835885,
          0.723674738752594,
          0.9492771654084741,
          1.4646681661540595,
          0.9032595928382149,
          -0.0876783279738685,
          0.005658349452529996,
          0.2620606551658283,
          -0.9898924440196367,
          0.6665772602158445,
          0.4745359682411041,
          -0.6642053350722241,
          0.2546627806439992,
          -1.3011145044495513,
          -0.5755523373382061,
          -0.6884371703903684,
          0.4005495356062865,
          0.8793831465787975,
          1.54915432263806,
          1.0614035345034536,
          -0.06866660645126499,
          -0.8198760929848122,
          -1.7206107261691577,
          -0.9578467092445692,
          0.05592585797105835,
          -0.7455309651171733,
          -0.474491875669352,
          -1.5283919342685441,
          -1.8064519638249914,
          0.269344754956928,
          1.543874327252669,
          0.4500115159472076,
          2.680839386030502,
          2.100969347876451,
          0.5730088388566371,
          0.7138704472474203,
          -0.6992584824566235,
          -0.5508589969238787,
          -0.7289900315223842,
          -0.9586804256519434,
          -1.1096958233786687,
          -0.4122663902366664,
          -0.9986145551459813,
          0.7390013117968246,
          -0.19893160628822226,
          -0.6558447053452888,
          -1.308697185779886,
          -1.4649721459842806,
          -1.3505625768763754,
          0.6099775389102591,
          0.11122062741023216,
          0.9501368716741054,
          -0.6598294278426904,
          -1.803745338896462,
          -1.2664995754107402,
          -0.8028334090625028,
          -0.4710385212965696,
          -0.12361874161528266,
          1.9671978349590977,
          1.4752882025559555,
          1.5517915719238844,
          1.975592522010785,
          -0.002643130262344825,
          -1.4606843703572332,
          0.6403778023265272,
          -0.21065855971287975,
          -0.2313305075155113,
          -0.9048912696997583,
          -0.07408440233667475,
          -0.8859805448872051,
          0.9862733908369803,
          -0.6339789805236813,
          -0.5849741548408786,
          -1.8290263257229022,
          0.11606488786882722,
          -0.344906759185986,
          -0.21040367282891165,
          1.0291373620312683,
          0.10282752476795541,
          -1.6104734299259962,
          -0.4809487503489519,
          -0.8921833565036238,
          -1.2507321807101859,
          -0.7856715636407611,
          -1.1781315562727483,
          0.4638976493996511,
          0.9244299923300195,
          1.6925153149672785,
          0.9459067570877813,
          1.1942189539501702,
          0.20182075046556983,
          -1.4747904422878857,
          -0.5115696778385624,
          -0.6126802773563761,
          -1.1912288427211817,
          -1.3807210061392168,
          0.02040375429587128,
          -0.025102587562985577,
          0.48989411213133005,
          0.316077146450239,
          0.513205209117001,
          -1.0246486117556517,
          0.9609612253089675,
          0.35308955923681673,
          0.7079881358836217,
          -0.14992850891027124,
          -0.4012765471925362,
          -0.6641352196555892,
          0.11474602978404351,
          -1.851500770649993,
          -0.9864701669706928,
          0.6746476065892293,
          0.6443722757850394,
          0.642299731666834,
          1.7664548928439718,
          0.31070401770725714,
          0.07970537402340486,
          0.27353035452294167,
          0.3905567888221496,
          0.6584191814291607,
          0.10381465518017932,
          -0.4852601830754061,
          -1.3193681411967109,
          -1.2308799734885671,
          -0.558886300077942,
          -1.0072746637177692,
          -0.30359865106616746,
          -0.9542581127417933,
          0.3435494147879353,
          0.07114077266877776,
          0.9073743654230566,
          0.31434438129534514,
          -0.6084748208253474,
          -0.7593461368642709,
          -0.16219598794164192,
          -1.0935582640865027,
          0.0643054126486339,
          -0.48526002966758514,
          -0.7045929965466297,
          0.5665140809077795,
          0.24717961128742583,
          0.7272120757810665,
          1.3566978146876587,
          0.3896611391688058,
          1.1787524386306696,
          0.5352249673087811,
          -0.14834983400802945,
          -0.988841483476977,
          -0.9637287001253235,
          0.1732935338112291,
          -0.6782088377668645,
          -0.5925144147781296,
          -1.1442821319624885,
          -1.038676568462966,
          -0.12611198502722742,
          0.7222133349454245,
          -0.2895872678036975,
          -1.4087969790020989,
          -1.1860104769127802,
          -1.322909362790511,
          -0.7675747421098709,
          -0.839570558379036,
          -2.2965222998841415,
          -1.4834492143077094,
          -0.8950504309085242,
          -0.8823016960950845,
          -0.3052675402392156,
          -1.2929627087352589,
          -0.16547685929615286,
          1.9746797421899975,
          0.6077088620100876,
          1.18742113368951,
          1.8315377062697558,
          2.1617434826993773,
          0.44892324022648983,
          -0.9514204874996319,
          -0.6149533823803891,
          0.4380905759777163,
          0.3476771114034304,
          -0.4663579438003756,
          -0.8390800367203599,
          -1.0908808244356918,
          -0.9302709168240444,
          0.2664072151750383,
          -0.6999430888980238,
          -1.5148311006266382,
          -1.3454650687592071,
          -1.4343166497894237,
          -0.7145812562509217,
          -0.7846890838306969,
          -1.3069169868560218,
          -0.9294433204353768,
          0.9857274591085928,
          -0.9471910432942806,
          -0.6484926017246665,
          -1.3445472291740386,
          -0.14142654257811393,
          1.156787315500096,
          0.996962870868316,
          0.8508130771068366,
          1.172372611021983,
          1.1131481113056554,
          -1.4982424680516442,
          -2.0328072066491485,
          -1.0194239271140075,
          -1.2072938186754745,
          -0.8421680906172704,
          -0.13983325375155312,
          -1.553843619193897,
          0.6798736537537328,
          -0.14589620771047063,
          0.4031430764490507,
          -1.2861417077001223,
          -2.072606860079467,
          -0.9145776651776673,
          -0.20015264355313514,
          -1.1135940749337383,
          -2.0542486683318866,
          -1.9579591148118498,
          -0.09474959265065168,
          -0.03724940486548831,
          -0.5082232958217152,
          -1.7237835949731484,
          0.19732877031442117,
          -0.3726155427681578,
          0.0026282263952385086,
          0.11901090340536101,
          0.0398862074800372,
          1.6600232431224586,
          0.9477707439540479,
          -0.0015445530924654183,
          -1.4128911421668475,
          -0.45233968127667573,
          -0.2313090286905526,
          -1.0076582662764817,
          -1.1257377940394209,
          -0.8058674251321756,
          0.09571397121745387,
          -0.839256864138108,
          0.4741729683208933,
          -0.23667088734288735,
          -1.448639911558087,
          0.06944234749539854,
          -1.3216073267411679,
          -1.8953872507729117,
          -0.2440308155168511,
          -0.8674306898494651,
          0.42197605138486455,
          0.09460957514884051,
          0.18268694896256213,
          0.11892644638434825,
          -0.3735278038853725,
          0.14377018390601173,
          0.5134191748891056,
          0.6584822549171424,
          1.8780288424265155,
          1.9957308093631223,
          1.453532568439825,
          0.2288810388985962,
          -0.4839394355167185,
          -1.07802722550639,
          0.6715019838131001,
          -1.3031377272811924,
          -0.2973857225798269,
          -0.010548764184575489,
          0.5721285401572213,
          0.8088855945996649,
          -0.3775427211382889,
          0.4719135250642847,
          0.1560039517158957,
          -0.7922265043403158,
          -0.763022063307504,
          0.04380765821396806,
          0.29499201871733227,
          0.9606906384086138,
          -0.021194726682254625,
          -0.09782335105877227,
          0.4691885194478773,
          -0.7272786699350242,
          1.0464010824801224,
          -0.5412567766848576,
          0.9091960126833348,
          1.6978833315422974,
          2.056921528526665,
          0.9651513982304395,
          0.05325854814687942,
          -0.8342431693068407,
          -0.027865339090486385,
          -0.6507928401502564,
          0.27324983280530935,
          -0.28500525437448904,
          0.33509455788393205,
          -0.8510712966547394,
          -0.7446357271095054,
          -0.14534144334876986,
          -0.49213904937625474,
          0.8851461387672331,
          0.5010236850856129,
          -0.5422951954947642,
          0.9563660133960172,
          -0.9660790635799701,
          -0.4069288988669974,
          0.5642919525358451,
          -0.24197039424940148,
          0.7635125262154621,
          -0.41451302960029063,
          -0.3187866210408638,
          -0.2660598084935079,
          -1.1676219305159208,
          0.24429715137827585,
          1.3890902522145705,
          1.8438305141708917,
          1.1759432738199735,
          0.6003184589089188,
          -0.6216260401398402,
          -0.5149184823057141,
          -0.19396893794618372,
          -0.9589922696160945,
          0.5541022891874945,
          0.05072159344297293,
          0.11693597293446295,
          0.2879989496290818,
          0.4541501588060626,
          0.5099688922156806,
          -0.5848181259173304,
          -1.0897865273157539,
          -0.36331845467857854,
          -0.11300186927175261,
          -1.0945328256505282,
          1.0710100426053102,
          -0.9170058380553623,
          -0.5232804812085352,
          0.8123427129326155,
          -0.3613154147654711,
          -1.4054146430898846,
          -0.6228199816878142,
          -0.28929242357643026,
          0.7504362614614939,
          2.140375336636553,
          0.9630862623672583,
          1.5930971574302928,
          0.13659084178810374,
          0.1305817890715915,
          -0.03861537537960012,
          -0.00835642077066857,
          -0.6325526326737709,
          0.05272816407749232,
          0.5995319972558557,
          -0.7809595755645191,
          0.6642960477197363,
          -0.9124731308316205,
          -0.296189180154264,
          -0.22402529101334548,
          -0.236649411750597,
          -0.9857406747988615,
          -0.359900169318579,
          -0.14126236204772377,
          0.6580704863424123,
          -0.04253537697274988,
          0.8236165478564843,
          -0.008550476563065944,
          -1.187083341990172,
          -0.7660025105154747,
          -1.140949631131104,
          -1.427453588342966,
          0.09025786551324551,
          2.308906526413921,
          0.9654571587297328,
          0.8700784859571695,
          0.35844283582638764,
          -0.14824803346816323,
          0.41785108140310406,
          -0.48074106129922267,
          -0.35004718127201406,
          -0.5365270647108978,
          0.6397607116891985,
          -0.06968402653482861,
          0.4037808842242138,
          0.48114549449405786,
          -0.9943571888651876,
          -0.8040360878126478,
          -0.9713833743990508,
          0.8885382123218762,
          -0.8140294786994577,
          -0.5050882857239789,
          -0.3346335615356874,
          0.6121117285753742,
          0.9891066709221895,
          -0.011315416481139155,
          -0.24773145892449464,
          -1.1799960060633765,
          -0.21301491932992023,
          -1.2741749879209052,
          -0.34366087565777625,
          -0.46548245450786185,
          1.1855336215658767,
          0.8106977225438393,
          0.1533480800247961,
          0.6023936320879097,
          0.31061591971367986,
          0.6901362028675296,
          0.6768021284883582,
          0.4365240120261733,
          0.5968551541546641,
          0.48384579715068865,
          -0.3285213946963959,
          -0.6428162793970682,
          -0.9748158950332646,
          -0.07698773046393459,
          0.6218603925951314,
          0.7604589821249561,
          -0.09124595995352647,
          0.7550024571321357,
          -0.4120544064998213,
          0.8143966079705389,
          -0.3628566058569975,
          -0.1959667418834099,
          0.25374628456878434,
          0.6728122796148068,
          -0.7724307594330262,
          -0.6502815687378434,
          0.9743567506384216,
          -0.5547000734207752,
          0.47674909706805346,
          -0.5182161194121879,
          -0.7621781751048364,
          0.1488107762526738,
          0.389909816869928,
          0.2811447492320953,
          -0.562969559216328,
          -0.647050141385981,
          0.46214631585125665,
          0.7510635187829953,
          -0.2984196105031105,
          0.8267519194900279
        ],
        [
          0.9666083457514487,
          -0.5732393611928581,
          0.6940410416163851,
          0.31058119321302957,
          -0.09101215561266573,
          -0.21316577256010905,
          -0.9356138475264895,
          -0.2418525499367279,
          -0.6897989480370055,
          0.2889619947171609,
          -0.5649276080930619,
          -0.1858305213840281,
          -0.05636823729455265,
          0.06471967472387341,
          0.6266200363027321,
          -0.1592742040890227,
          0.7795088767317973,
          -0.6222598342776373,
          0.7982596262171002,
          -0.4343183201760734,
          -0.002604125674926072,
          0.5857524162878125,
          0.2569087272777635,
          0.2789685363060308,
          0.937066705490234,
          -0.030822146193787425,
          -0.7317124061235023,
          0.5254549304716118,
          0.6366135125720567,
          -0.33688871074362664,
          -0.925851794579215,
          -0.8182106764743016,
          0.45899119557194573,
          -0.2560954708971152,
          -0.28961563572286514,
          -0.9696878474617643,
          -0.8619908352471434,
          -0.7114923725425274,
          -0.40465347198840196,
          -0.7559522509351595,
          -0.5398418990317314,
          0.22990320948314905,
          -0.43448712275762663,
          -0.4661873328019616,
          -0.7110617965723581,
          0.4444046601544781,
          0.20665164620494306,
          -0.4678288225547476,
          0.2894301137546073,
          -0.4094106763709698,
          0.028792368594580283,
          0.7493919015949414,
          0.7024730633470058,
          0.08424150582441284,
          0.9783012424411531,
          0.8793365542771234,
          -0.3712974921576635,
          -0.11276538810570172,
          0.16309438197330617,
          0.30184746560003334,
          -0.8616559739729065,
          -0.1363035734178526,
          0.39804813744763146,
          -0.14752301725792014,
          -0.40225242642592157,
          -0.6221777160183366,
          -0.46413449734825674,
          -1.1289037745841803,
          -0.7768181982362242,
          -2.3667996452579274,
          -1.4066961574847192,
          -0.7369216881164132,
          -0.4227802053125211,
          -0.12152233312101393,
          -0.26528068694329116,
          -0.3979165647178121,
          -1.2798284921674383,
          -1.0662444753265592,
          0.44724589069400733,
          0.6050940967331957,
          0.06230419211942318,
          0.5897904369504575,
          -0.976148153273767,
          0.9796350342426596,
          0.1558717133868026,
          -0.583813399745514,
          -0.651576323113785,
          -1.1878664283474045,
          -0.34007815868593133,
          0.06455743772468961,
          -0.48387309084601376,
          1.1203429682803736,
          -0.26897778489708324,
          0.9999861012935666,
          0.7572774227269904,
          0.4634898264994125,
          0.031325871928900864,
          -0.5324420817536056,
          -1.1874796895202524,
          0.4020601206285259,
          -0.002616091978945925,
          -1.2038631914342752,
          0.47122990738018505,
          -1.5300815610132459,
          -0.5568492427074078,
          -0.2763218061674916,
          -0.07262019877627965,
          1.0073088098866685,
          -0.7028527845449323,
          -0.39866482797291647,
          0.09288330526435007,
          -0.20189629300630907,
          0.13031775696735703,
          0.5228062481154782,
          -0.5767936409079109,
          0.6403264175671696,
          0.13050405226732717,
          0.23535146769841608,
          1.8638642568503125,
          1.2261859832489344,
          3.0006886272870847,
          1.0803602053278816,
          1.3257730764400422,
          -0.06983789766887606,
          0.7271769617150314,
          -1.123385889194573,
          -2.412179045638467,
          -0.11681558925044071,
          0.23144518588058915,
          -0.4712639394901237,
          -0.30533822897154006,
          0.7644190014214696,
          -0.6692657451955935,
          -1.5884675653152764,
          -0.9358069867902171,
          0.8872856092365886,
          -0.6528111103438992,
          1.670390259670268,
          0.263318038568273,
          -0.8721473879484474,
          -0.11385931087128087,
          0.9100918714203805,
          1.0585207362818951,
          0.04566309710151474,
          1.079999273525289,
          0.9133724790443047,
          2.1381710210940224,
          0.7045561363134578,
          2.3678318866869166,
          0.6546141625943658,
          1.187749543389999,
          0.47941177873581553,
          -0.35391907486052593,
          -1.5654672320898255,
          -1.609468559967867,
          -0.6352333842337865,
          0.005539194567921684,
          -1.739513037514726,
          -1.1110798631391154,
          0.4062067926931567,
          -1.7780470765815586,
          -0.21843263327181553,
          -0.42380842699498905,
          0.6728356051308789,
          0.18006273296191025,
          -0.6430728927967548,
          -0.7794810632631909,
          -0.9714012117599338,
          -0.061064995625401686,
          -0.3494766850396157,
          0.9570635158929367,
          1.5183353963606345,
          1.2389316095478393,
          1.2071082218240787,
          0.7678507331482922,
          1.7282518104550395,
          2.316997553143633,
          1.6212075270914488,
          1.580705743370757,
          0.901674770298004,
          0.016086302623270515,
          -1.4998786477125001,
          -2.440891435350259,
          -0.0018156394452099127,
          1.004162591549685,
          -0.10040957636091838,
          -0.7842369393602134,
          1.6683485170182373,
          -0.12891774190628785,
          -0.4011281827983799,
          1.4309131827828823,
          -0.2261144727389794,
          -0.5332724041782492,
          -0.5447873196509977,
          -0.7524206827245418,
          -0.2847408330056047,
          0.2006162045832931,
          -0.7761568968545187,
          0.4059620421772789,
          0.5986676653794035,
          1.0321141098826487,
          1.5071896242436504,
          -0.3706069180771552,
          2.53673013567029,
          3.1093667902361184,
          1.691661061194529,
          0.6261919415330792,
          0.9889541383647895,
          -0.2761818703023192,
          -1.1230369123170132,
          -1.502919385436058,
          1.3332279732075676,
          0.010872756915463053,
          -0.7839497420941144,
          -0.41758491705138984,
          1.2711504153240005,
          0.15880694214919047,
          1.1971808056362876,
          0.6824179834975211,
          -1.1034135274863643,
          -1.2285193989094223,
          1.587945341771895,
          -0.6406925654781548,
          0.052748783204132677,
          0.13939016748946775,
          0.8780342552051954,
          1.3758160837265239,
          0.7825478934379871,
          0.6542085216667256,
          0.8438439843774757,
          0.5796953661705874,
          2.36462640170975,
          0.8113499539204457,
          1.6492240591231166,
          0.8094567259004624,
          1.8988746172844904,
          0.04969816730262563,
          -2.755880701732312,
          -0.5971272698809035,
          -2.2357931229703913,
          -1.2674954178879732,
          -0.5996508650735302,
          -0.011833017419282289,
          0.4532780883349207,
          -1.5392886055262363,
          -0.9767206362276462,
          -0.6805770305361263,
          -0.06893955757607648,
          -0.5893820048075249,
          -0.9773992230518465,
          0.6316355974122341,
          -0.8537126441049296,
          -0.47345173393389817,
          -0.1346267864865947,
          1.2656918448744665,
          0.025564095973910503,
          1.5165652205349713,
          1.8539056539739305,
          1.708224979046396,
          1.574637188760353,
          1.4229354705236157,
          1.3399444318779306,
          2.2855622445259804,
          1.396117538715635,
          -0.35634006220199116,
          0.003773547372300715,
          -1.2052792946229556,
          -0.30552705883844966,
          -1.1910639691124725,
          -0.1970554790375931,
          0.13933013058592705,
          -0.9756448502695295,
          -0.7298724554620124,
          0.6815208412995832,
          -0.19191272651176086,
          0.07459627544066459,
          -2.490052980700031,
          -1.137533307324427,
          -0.45370539784136665,
          0.2737703975291683,
          -0.7719571183924716,
          0.6514326713992643,
          0.4855007474109301,
          2.275682555669988,
          2.3723228974721144,
          2.272502334081931,
          2.885645339280329,
          2.43634860318847,
          1.8695797965430418,
          0.5140127560865988,
          1.6551352213748884,
          -0.18200462519075775,
          -0.4323623154841526,
          -0.08521116949282546,
          -1.2095387780164515,
          0.2236865992100056,
          0.5411686865560352,
          0.2732747690088236,
          0.9556834148551787,
          -1.6496574450428694,
          1.1682651001387045,
          -0.3202909363971333,
          -0.815069209433083,
          1.5573514782518691,
          0.606756340724599,
          -0.9138319996843567,
          -0.5694690110063491,
          -0.6317537714268113,
          0.5446630434684363,
          0.23777644150953509,
          0.8251230037064138,
          2.2418676261900266,
          -0.09444852263700648,
          2.301110640673075,
          1.8410143286784564,
          3.8857545607416757,
          3.2731886845207003,
          1.5271108472985333,
          1.3157109925220445,
          0.99856593729416,
          0.08630945340282428,
          -0.21096681748255128,
          -1.509722522250435,
          1.226780615989427,
          1.9579093551839872,
          0.6745589743220068,
          -0.07268582278199039,
          -0.51582380123891,
          -0.7822601006017892,
          -1.2709893958972065,
          -1.8888403336495625,
          -0.8628575972139554,
          -1.5596600330708392,
          -0.4173314357358165,
          -1.037228909551419,
          -0.8169942136617694,
          -0.7811975929616191,
          0.42578721191137076,
          0.24728315151264874,
          0.6342227127575629,
          1.6587376810345853,
          1.7914812237025506,
          2.342034686581302,
          3.8857652974933017,
          1.5820641650173621,
          1.9463824815576438,
          3.91331217225438,
          2.787117002814672,
          1.4212500223091777,
          1.7774489581565278,
          -0.4383274645664173,
          0.8094263217678977,
          1.900970028253518,
          1.344041556990339,
          0.6119524385320327,
          -0.19170597947525966,
          2.0600362502903278,
          0.22185960416885261,
          0.8024922463015078,
          -0.7703185842469621,
          0.6200456454269326,
          -0.5814726076341218,
          -1.5858447994187062,
          -0.5660029692612945,
          -0.6082326771523268,
          -2.1942397631173383,
          0.07729626932969048,
          1.2988042198989727,
          0.3320344582142443,
          0.4947470243637832,
          1.4380204341349851,
          2.8820236272354878,
          -0.47170926316980544,
          0.22716811720824384,
          0.8692452122524665,
          -0.7453023009133163,
          -1.2943379097981833,
          -0.8841704799314459,
          -0.9221368204094429,
          0.31042439876660555,
          -1.113670347967844,
          0.18893597660628247,
          -0.10683520000668426,
          -1.6576494440379919,
          -1.9295157975017432,
          -0.0416306184785989,
          -1.9872031002869885,
          2.3341831685838845,
          2.321105875028884,
          -1.2121564632746362,
          -0.5963284658003297,
          -0.052344787195565345,
          0.950261448032804,
          -0.8406648410694556,
          -0.6384678117910657,
          -0.5759875098073991,
          -0.6162838572913739,
          1.2711099519347082,
          2.1929982595309796,
          1.4179534535719696,
          1.4119999271363712,
          0.6914020282463733,
          0.8673526132575687,
          0.02335415650201012,
          -0.4359938413905258,
          -1.4001193718995988,
          -1.4336825891496165,
          0.025824315590265202,
          -0.1942178692365336,
          -0.864710768396286,
          -0.7946570218544636,
          -0.21782988526448144,
          -0.04261322189755596,
          0.0816731180821936,
          -2.567126389792246,
          -1.1257996636683623,
          -0.73458050144779,
          -1.1626128709839745,
          0.9778637207268649,
          -0.016959912465676297,
          0.24815225391392937,
          -0.5341327302493514,
          0.12632431724544682,
          0.37354651602128713,
          1.4303273771800937,
          0.4531382048798145,
          -0.3100508069610683,
          2.113163348860671,
          0.11369497040299278,
          0.3731378886441239,
          0.38159083240355884,
          -0.871114280604718,
          -1.4892091764806277,
          -1.718380117465671,
          0.9739702134272379,
          -0.2918715161531246,
          0.029257081763527825,
          0.16229559712968564,
          1.5252543388872624,
          1.2098141610273336,
          -1.11695454050735,
          -1.3898936289763069,
          -0.2651108353085442,
          0.08254205663117396,
          -1.8359077562789898,
          -0.8299494852483981,
          -1.508280523360682,
          0.7770426784521574,
          -0.89093834334913,
          -0.20541464544363017,
          1.5009635541336273,
          -0.4094531200995494,
          -0.9558811674621241,
          -1.2195522263428997,
          1.5515988496332829,
          1.2505550827500416,
          1.1812357151375399,
          0.19528897006568083,
          -0.08614375858801214,
          0.7133620285126706,
          0.5926527487434936,
          0.7572618548687998,
          -1.6593162916437394,
          -1.0385200441178561,
          -0.4547603889670645,
          0.8589841411650383,
          2.728440409032386,
          -0.7321571893960775,
          0.2927336324937105,
          -0.324255880095263,
          0.964171879284527,
          0.4940381434748788,
          -1.1702142410081882,
          -0.14320172531354786,
          0.3256376964854037,
          0.7508503149194656,
          -0.46558852354541624,
          0.4995530456428023,
          0.9930753266143418,
          -0.1041333356808469,
          -0.43216186660709455,
          0.7775438328370283,
          -0.8311238922575958,
          0.9262814039191127,
          2.1019079502491995,
          1.73158672329485,
          1.011434314256331,
          1.3700342751674834,
          -0.8569147288489445,
          2.0050139515895222,
          -0.9738125109404885,
          -0.44724020941383197,
          -0.7355479729530209,
          0.36757727971730314,
          -0.48009192550335344,
          -0.5880921520178385,
          0.959240766462676,
          0.6422349123913818,
          -0.6676494298985295,
          1.650100195330535,
          -1.0649319938447737,
          -0.682404720001849,
          0.5645101118859326,
          0.3342824286739323,
          -0.7523122573444059,
          -0.3642862553828678,
          -0.5716523992825053,
          1.1176455226681412,
          -0.14122506049900563,
          -0.18011881644130726,
          -0.42232335205475224,
          -0.853633008972739,
          1.2321558849359473,
          1.6825761501643095,
          -0.6107252547371326,
          1.357409981925116,
          0.500178651843098,
          1.2664744154256717,
          0.43998607844469606,
          0.6433711766156046,
          0.8561130519124247,
          -0.7500730509328738,
          -1.6226839577861434,
          0.47781768876835146,
          0.16416215202873738,
          -0.6479563462135156,
          -0.6479044560966242,
          0.9137031908787016,
          -0.9837122030233927,
          0.5148753592811518,
          0.5507775574963115,
          0.7659922608584764,
          0.8124190518086978,
          0.43913922200507527,
          0.2813180190496883,
          -0.45426977671560986,
          0.05390895167366413,
          -0.6546892817205608,
          0.5148658600411784,
          0.04279101488859642,
          -1.602709532678737,
          -0.3084930694898369,
          2.1394969369190413,
          1.1050397982945084,
          0.3057161541364054,
          0.40542274623328356,
          -0.40965969831922333,
          0.5614987349271354,
          0.5393828363917784,
          0.5149595243203118,
          0.0341689323980991,
          0.31499554920262474,
          -0.39060370546176487,
          -1.8748594300076047,
          -1.3584210688908167,
          -0.6588100657212521,
          0.6315583618515529,
          1.0312196467774877,
          1.3388241553905158,
          -0.5367902427195828,
          -0.8403943976731896,
          -0.6365679956775756,
          -0.03727658083233887,
          -0.8803438751641975,
          0.1942576515868044,
          -0.12025779932290447,
          -0.24557200677160226,
          0.8934309577884456,
          0.8493777574755978,
          0.08706074344217989,
          -0.39984366218488177,
          1.5075451835035434,
          0.6217279176875019,
          -0.8178768355978975,
          -1.3349272183694962,
          0.2779742566256399,
          0.07194181545812588,
          -1.3216565994316023,
          0.18185631306533803,
          -0.49100398652945015,
          0.36885128998629435,
          0.18808290029214955,
          0.7362510996334465,
          -0.18168420317215497,
          -0.4958213814141041,
          -0.263013923482611,
          -0.26135649781613735,
          0.4865887392595658,
          -0.4858347648839745,
          -1.1485681796843707,
          -1.4482463762604305,
          0.025725992891827948,
          -0.7430891307205015,
          -0.6793386540468594,
          -1.3138560389441492,
          -0.17163333346110737,
          0.00866995681353995,
          0.02017630154610766,
          0.8387606969817074,
          1.0947889938442268,
          -1.2877092078748202,
          -0.47614107265990857,
          -0.8718258159931954,
          0.45132462955162217,
          -1.026474282317042,
          0.5816785114496327,
          0.37573667365892954,
          -0.7316394134923985,
          -1.0067710956116624,
          -0.2326666579716345,
          -0.5888131816704771,
          -0.7945468678588978,
          -0.9466661020363071,
          0.06469893810309918,
          1.0514512913229912,
          0.29687632109663964,
          0.18874949355361115,
          -0.5774229940596045,
          0.4668883003077675,
          0.6687593679327523,
          -0.38584720602185646,
          0.07218775268559494,
          -0.5069554133168562,
          0.6989187388639547,
          -0.44006222614976137,
          0.6019896602433389,
          1.2959112345873807,
          -0.7086304011129398,
          -0.7700936395163639,
          -0.2524907761466651,
          0.40617643423214445,
          -0.8431906560264776,
          -0.3521686013187612,
          1.860284054752109,
          -0.15877836389634237,
          -0.1267650091330413,
          -0.8195852402219662,
          0.022756697416346932,
          0.13308067818507993,
          -0.723048377206248,
          0.9098850363205749,
          0.6076020797604987,
          0.6669321869844754,
          -0.2141746038934167,
          0.32233621633099063,
          -0.08583942038961058,
          -0.968438199653911,
          -0.3472210215510861,
          -0.7554432687397181,
          0.8059100917018293,
          0.14523420640204712,
          -0.2554322115274234,
          0.375555853688761,
          -0.30812657913972064,
          0.3453283132950143,
          -1.138783843074128,
          -2.030998897193619,
          -0.26762502052936077,
          0.7967835312489969,
          -0.007839938432784594,
          -0.3157152037528029,
          1.3160507468379343,
          0.09464823481631088,
          0.6988384897242613,
          -0.3251313621233013,
          -0.00133216197149254,
          -0.13115564534611224,
          0.44747580821087607,
          -0.15519159289203027,
          -0.16464437922682737,
          -0.5587076875204958,
          -0.7441810278649594,
          -0.9310660181666925,
          0.8320350053600994,
          -0.007656748566983142,
          -1.2244814449207462,
          -1.203752414404853,
          -0.11899306735605408,
          0.20794803711705043,
          -0.7568603639986065,
          0.4472846499373833,
          0.9748552345808488,
          1.0205850747634622,
          -0.3883944273718252,
          0.7827014297019296,
          0.6148276883726541,
          0.40980362468627396,
          1.0060985310075186,
          0.41379739140813704,
          -0.6255029504182579,
          -0.7996599104489325,
          0.016966075229091476,
          -0.1461394142253305,
          0.8736928876640752,
          -0.42722307894006256,
          0.25686718767360456,
          -0.24711668803279035,
          -0.5680668736416137,
          -0.7964745130183946,
          0.13387617797483053,
          0.8179088117360616,
          0.5795672617247436,
          0.08659087138424834,
          -0.9805852530403364,
          -0.32728370272309254,
          -0.9189383323883795,
          0.43012158911175297,
          0.42421404754409614,
          -0.9850739196226129,
          0.6138555713313808,
          -1.3473000465642233,
          -0.8538605768138775,
          -1.7287270520410234,
          -1.246671048910017,
          -1.2328691031116867,
          -0.03525437625241946,
          -0.9675845454633679,
          -0.2813405276335029,
          0.784103668719178,
          -0.06750795404851254,
          0.32507234908410754,
          -0.8636269375289483,
          -0.8247216233979324,
          0.018394324566708805,
          -0.9984623838563319,
          0.38204241488808294,
          0.6545726085007533,
          0.16802534716577444,
          0.6696654420931452,
          0.11367285948952464,
          -0.11490852752118184,
          -0.5599214897383366,
          -0.4950771685074024,
          0.07816894367899,
          -0.23736173834135862,
          -1.0883251109143708,
          0.6132165182968632,
          0.3891834802626242,
          -0.6368800443584066,
          -1.6261037143728656,
          -1.5675610344875055,
          -1.586650684654582,
          0.1316905049131818,
          -0.8749489321145426,
          -1.4091999729328184,
          -0.4519260678745236,
          -0.7154949904398832,
          -0.4563832838354246,
          -0.477819576315763,
          0.06311828811580734,
          0.7014276528094325,
          0.4112947586075174,
          -1.1348508401451844,
          0.6983893820256267,
          -0.8003555245363447,
          -0.6892007774505615,
          0.17287890392370353,
          0.9821158202352749,
          0.1634754167927963,
          -0.6542156702110113,
          -0.17182874616048127,
          -0.3279594463544704,
          0.32670063523802195,
          -0.16497471789143714,
          -0.927800564737318,
          0.8732058290468099,
          0.8578188794822219,
          0.19740118094630432,
          -0.6565698123481365,
          -0.6707448538834302,
          -0.6950498596533801,
          -0.916207235772637,
          0.2693649037778938,
          -0.2381625356186896,
          -0.17443739206034836,
          0.05248740428804477,
          0.2999209294160461,
          -0.4785135020554214,
          -0.9690884403503561,
          0.7296044183034991,
          -0.17805263427280638,
          0.5589962611980246,
          0.3922809298970651,
          -0.9611232139019679
        ],
        [
          -0.6063524287709128,
          0.6340125819237934,
          -0.24280453937245028,
          0.9438422226908991,
          0.6995839625232416,
          -0.4155953819145064,
          0.44300493202548186,
          0.008723380910333534,
          0.6687623448656577,
          -0.12912829145421534,
          -0.5622496081961947,
          0.8548307775192698,
          0.5057329653643181,
          0.35649563776922943,
          0.9546780927185974,
          0.6819230154046043,
          -0.3039491146008906,
          -0.5860411616106105,
          -0.45494974751132844,
          0.5058114511336986,
          -0.4003238436743657,
          -0.021948502896318,
          0.6313215470046913,
          0.273655780953318,
          0.037970359861832614,
          0.270395950607593,
          -0.26629546125897385,
          -0.7313234281711529,
          -0.3029555567426898,
          0.19571385427274282,
          0.9779754556329896,
          0.2360924046569973,
          -0.9967250505388201,
          0.4914542901009319,
          0.08097327508428963,
          -0.9677521979667147,
          -0.14383242734769908,
          -0.9934695786558037,
          0.37730336426188077,
          -0.7654982974387401,
          0.5318775165304904,
          0.19261486361551175,
          0.691387228431528,
          0.5510671196714383,
          -0.4529092404541309,
          -0.4916267398272611,
          -0.46361935471663845,
          -0.9736531675917953,
          -0.9915864322864133,
          -0.6044865743080811,
          0.19447282973516558,
          0.08923588627857419,
          0.9108642356902913,
          -0.05470467234302203,
          -0.2286311432256866,
          0.021233152003192757,
          0.3476204210072107,
          0.49514486179532635,
          0.5727090773396291,
          -1.0017870062718321,
          -0.5158809027173026,
          -1.7226873782737053,
          -1.0364064268292752,
          -0.5530877950327868,
          -0.9682215883045215,
          -0.6746030162721102,
          0.06585270923271236,
          0.585751502660685,
          1.6034405111901997,
          0.004956662339378064,
          -1.3263918955072052,
          -0.5376101389806129,
          -0.3371637849361396,
          -0.11121902203608272,
          -0.6616591680069827,
          -1.0367339213273628,
          -0.25890835417565616,
          0.21658048849336928,
          0.024357811870332327,
          0.8823093483085213,
          -0.7696266632408029,
          0.8106073273693852,
          -0.19350934602159672,
          -0.8277799782446202,
          0.4430843012515535,
          0.6568579653168138,
          0.17141060773374467,
          -0.07928448940428308,
